//Numpy array shape [16, 16]
//Min -1.495596408844
//Max 1.227459192276
//Number of zeros 0

#ifndef W4_H_
#define W4_H_

#ifndef __SYNTHESIS__
model_default_t w4[256];
#else
model_default_t w4[256] = {-0.5501, -0.2619, 0.7135, -0.5065, -0.1687, -0.2746, 0.0786, -0.5414, 0.5831, -0.4558, -0.5402, -0.6852, 0.1338, 0.3179, 0.8675, -0.0737, -0.0802, -0.0971, 0.0134, 0.2262, 0.3489, -0.0112, 0.3599, -0.1631, 0.1326, -0.0250, 0.4270, -0.1677, -0.1484, 0.3860, -0.4625, -0.5410, 0.0431, 0.1115, 0.0450, 0.4566, -1.0797, 0.3225, -0.1520, -0.8705, -1.1922, -0.0308, -0.5263, -0.0215, -0.5175, -0.5902, 0.4747, -0.7591, 0.3275, -0.1939, -0.4174, -0.3717, 0.6392, -0.1024, 0.1768, -0.0954, -0.1450, 0.1128, 0.0664, -0.3805, 0.3364, 0.7794, 0.2977, 0.0118, -0.3380, 0.3966, 0.6947, -0.1670, 0.4081, -0.1879, 0.6155, 0.4785, -1.4956, 0.1869, -0.1390, -0.9440, 0.3045, 0.4044, 0.1432, -0.6808, 0.0196, -0.0709, -0.0740, 0.5321, -0.1491, 0.6025, -0.1698, 0.2367, 0.3447, 0.4470, -0.1697, 0.1452, -0.0259, 0.0740, 0.5408, 0.5502, -0.1375, -0.0087, -0.3414, 0.0225, 0.6899, 0.2748, 0.4068, 0.4476, -0.1242, -0.6498, 0.1614, 0.5490, 0.0547, -0.0677, -0.1705, 0.1511, -0.2092, 0.2001, 0.1280, -0.0854, -0.5353, -0.3708, -0.5717, -0.7424, -0.0269, -0.2520, -0.2885, -0.0517, -0.1162, -0.1726, 1.2275, -0.5621, -0.0878, 0.4002, 0.3946, -1.0835, -0.1196, 0.4102, 0.1141, -0.4124, 0.7541, -0.3130, -0.4789, 0.8013, -0.0756, -0.1509, 0.3301, 0.3685, 0.3744, 0.6926, 0.2616, 0.5805, 0.1819, 0.4278, 0.1131, 0.0597, 0.3739, 0.2693, 0.5186, 0.9788, -0.3720, 0.1887, -0.6217, 0.1995, 0.0880, 0.4123, -0.4926, -0.4589, -0.6555, 0.6482, -0.4765, -0.5921, -1.2131, 0.0567, -0.4673, 0.1909, -0.1912, -0.2912, -0.0032, -0.2524, 0.2162, -0.5327, 0.3500, 0.0410, 0.0910, 0.9140, -0.1902, -0.1785, 0.8387, 0.5153, -0.0497, 0.1139, -0.1760, -0.8873, 0.1682, 0.6562, -0.0029, -0.6989, 0.2312, 0.2495, 0.2773, -0.5376, -0.0574, -0.0461, -0.4009, -0.4814, 0.2802, 0.2618, -0.1773, 0.4294, -0.0804, 0.1111, -0.5740, -0.0178, -0.6190, -0.1469, -0.2027, -0.4490, -0.3217, -0.3564, -1.0016, -0.6201, -0.1603, -0.6719, -0.2525, -0.4481, -0.0627, -0.2092, 0.1087, 0.4537, -0.6605, -0.1344, 0.0107, 0.0742, 0.4198, 0.6473, -0.7926, -0.2195, -0.0582, -0.7587, 0.1532, -0.1717, -0.8388, -0.5582, -0.0462, -0.4546, 0.6342, -0.4072, -0.6343, 0.3913, -0.2626, -0.9653, -0.2626, -0.3080, -0.8346, 0.2242, -0.2519, -0.1155, 0.5883, -0.0334};
#endif

#endif
